digraph Tree {
0 [label="X[0] <= 64.8950\ngini = 0.401632414152\nsamples = 248", shape="box"] ;
1 [label="X[0] <= -304.3650\ngini = 0.357618291138\nsamples = 223", shape="box"] ;
0 -> 1 ;
2 [label="gini = 0.0000\nsamples = 7\nvalue = [ 7.  0.]", shape="box"] ;
1 -> 2 ;
3 [label="X[0] <= 12.6150\ngini = 0.329861111111\nsamples = 216", shape="box"] ;
1 -> 3 ;
4 [label="X[0] <= 11.8150\ngini = 0.39000704832\nsamples = 113", shape="box"] ;
3 -> 4 ;
5 [label="X[0] <= -19.8800\ngini = 0.37041322314\nsamples = 110", shape="box"] ;
4 -> 5 ;
6 [label="X[0] <= -286.1150\ngini = 0.265927977839\nsamples = 38", shape="box"] ;
5 -> 6 ;
7 [label="X[0] <= -292.8200\ngini = 0.444444444444\nsamples = 6", shape="box"] ;
6 -> 7 ;
8 [label="gini = 0.0000\nsamples = 3\nvalue = [ 0.  3.]", shape="box"] ;
7 -> 8 ;
9 [label="X[0] <= -290.0850\ngini = 0.444444444444\nsamples = 3", shape="box"] ;
7 -> 9 ;
10 [label="X[0] <= -291.0850\ngini = 0.5\nsamples = 2", shape="box"] ;
9 -> 10 ;
11 [label="gini = 0.0000\nsamples = 1\nvalue = [ 1.  0.]", shape="box"] ;
10 -> 11 ;
12 [label="gini = 0.0000\nsamples = 1\nvalue = [ 0.  1.]", shape="box"] ;
10 -> 12 ;
13 [label="gini = 0.0000\nsamples = 1\nvalue = [ 1.  0.]", shape="box"] ;
9 -> 13 ;
14 [label="X[0] <= -70.5100\ngini = 0.21875\nsamples = 32", shape="box"] ;
6 -> 14 ;
15 [label="gini = 0.0000\nsamples = 8\nvalue = [ 0.  8.]", shape="box"] ;
14 -> 15 ;
16 [label="X[0] <= -54.2850\ngini = 0.277777777778\nsamples = 24", shape="box"] ;
14 -> 16 ;
17 [label="gini = 0.0000\nsamples = 1\nvalue = [ 1.  0.]", shape="box"] ;
16 -> 17 ;
18 [label="X[0] <= -23.1750\ngini = 0.226843100189\nsamples = 23", shape="box"] ;
16 -> 18 ;
19 [label="X[0] <= -23.6700\ngini = 0.290657439446\nsamples = 17", shape="box"] ;
18 -> 19 ;
20 [label="X[0] <= -28.9500\ngini = 0.21875\nsamples = 16", shape="box"] ;
19 -> 20 ;
21 [label="X[0] <= -30.4200\ngini = 0.32\nsamples = 10", shape="box"] ;
20 -> 21 ;
22 [label="X[0] <= -36.0700\ngini = 0.197530864198\nsamples = 9", shape="box"] ;
21 -> 22 ;
23 [label="X[0] <= -36.3650\ngini = 0.32\nsamples = 5", shape="box"] ;
22 -> 23 ;
24 [label="gini = 0.0000\nsamples = 4\nvalue = [ 0.  4.]", shape="box"] ;
23 -> 24 ;
25 [label="gini = 0.0000\nsamples = 1\nvalue = [ 1.  0.]", shape="box"] ;
23 -> 25 ;
26 [label="gini = 0.0000\nsamples = 4\nvalue = [ 0.  4.]", shape="box"] ;
22 -> 26 ;
27 [label="gini = 0.0000\nsamples = 1\nvalue = [ 1.  0.]", shape="box"] ;
21 -> 27 ;
28 [label="gini = 0.0000\nsamples = 6\nvalue = [ 0.  6.]", shape="box"] ;
20 -> 28 ;
29 [label="gini = 0.0000\nsamples = 1\nvalue = [ 1.  0.]", shape="box"] ;
19 -> 29 ;
30 [label="gini = 0.0000\nsamples = 6\nvalue = [ 0.  6.]", shape="box"] ;
18 -> 30 ;
31 [label="X[0] <= -17.6750\ngini = 0.413194444444\nsamples = 72", shape="box"] ;
5 -> 31 ;
32 [label="gini = 0.0000\nsamples = 3\nvalue = [ 3.  0.]", shape="box"] ;
31 -> 32 ;
33 [label="X[0] <= -5.3600\ngini = 0.385633270321\nsamples = 69", shape="box"] ;
31 -> 33 ;
34 [label="X[0] <= -14.6600\ngini = 0.197530864198\nsamples = 18", shape="box"] ;
33 -> 34 ;
35 [label="gini = 0.0000\nsamples = 5\nvalue = [ 0.  5.]", shape="box"] ;
34 -> 35 ;
36 [label="X[0] <= -13.1600\ngini = 0.260355029586\nsamples = 13", shape="box"] ;
34 -> 36 ;
37 [label="gini = 0.0000\nsamples = 1\nvalue = [ 1.  0.]", shape="box"] ;
36 -> 37 ;
38 [label="X[0] <= -8.6750\ngini = 0.152777777778\nsamples = 12", shape="box"] ;
36 -> 38 ;
39 [label="gini = 0.0000\nsamples = 6\nvalue = [ 0.  6.]", shape="box"] ;
38 -> 39 ;
40 [label="X[0] <= -8.1350\ngini = 0.277777777778\nsamples = 6", shape="box"] ;
38 -> 40 ;
41 [label="gini = 0.0000\nsamples = 1\nvalue = [ 1.  0.]", shape="box"] ;
40 -> 41 ;
42 [label="gini = 0.0000\nsamples = 5\nvalue = [ 0.  5.]", shape="box"] ;
40 -> 42 ;
43 [label="X[0] <= 4.7000\ngini = 0.430603613995\nsamples = 51", shape="box"] ;
33 -> 43 ;
44 [label="X[0] <= 1.2100\ngini = 0.5\nsamples = 22", shape="box"] ;
43 -> 44 ;
45 [label="X[0] <= -2.0400\ngini = 0.444444444444\nsamples = 15", shape="box"] ;
44 -> 45 ;
46 [label="X[0] <= -2.3450\ngini = 0.46875\nsamples = 8", shape="box"] ;
45 -> 46 ;
47 [label="X[0] <= -2.9750\ngini = 0.489795918367\nsamples = 7", shape="box"] ;
46 -> 47 ;
48 [label="X[0] <= -4.2200\ngini = 0.444444444444\nsamples = 6", shape="box"] ;
47 -> 48 ;
49 [label="X[0] <= -5.2000\ngini = 0.5\nsamples = 4", shape="box"] ;
48 -> 49 ;
50 [label="gini = 0.0000\nsamples = 1\nvalue = [ 1.  0.]", shape="box"] ;
49 -> 50 ;
51 [label="X[0] <= -4.8850\ngini = 0.444444444444\nsamples = 3", shape="box"] ;
49 -> 51 ;
52 [label="gini = 0.0000\nsamples = 1\nvalue = [ 0.  1.]", shape="box"] ;
51 -> 52 ;
53 [label="gini = 0.5000\nsamples = 2\nvalue = [ 1.  1.]", shape="box"] ;
51 -> 53 ;
54 [label="gini = 0.0000\nsamples = 2\nvalue = [ 2.  0.]", shape="box"] ;
48 -> 54 ;
55 [label="gini = 0.0000\nsamples = 1\nvalue = [ 0.  1.]", shape="box"] ;
47 -> 55 ;
56 [label="gini = 0.0000\nsamples = 1\nvalue = [ 1.  0.]", shape="box"] ;
46 -> 56 ;
57 [label="gini = 0.0000\nsamples = 7\nvalue = [ 0.  7.]", shape="box"] ;
45 -> 57 ;
58 [label="X[0] <= 3.3350\ngini = 0.244897959184\nsamples = 7", shape="box"] ;
44 -> 58 ;
59 [label="X[0] <= 2.7050\ngini = 0.444444444444\nsamples = 3", shape="box"] ;
58 -> 59 ;
60 [label="gini = 0.0000\nsamples = 2\nvalue = [ 2.  0.]", shape="box"] ;
59 -> 60 ;
61 [label="gini = 0.0000\nsamples = 1\nvalue = [ 0.  1.]", shape="box"] ;
59 -> 61 ;
62 [label="gini = 0.0000\nsamples = 4\nvalue = [ 4.  0.]", shape="box"] ;
58 -> 62 ;
63 [label="X[0] <= 6.5750\ngini = 0.285374554102\nsamples = 29", shape="box"] ;
43 -> 63 ;
64 [label="gini = 0.0000\nsamples = 8\nvalue = [ 0.  8.]", shape="box"] ;
63 -> 64 ;
65 [label="X[0] <= 6.6750\ngini = 0.362811791383\nsamples = 21", shape="box"] ;
63 -> 65 ;
66 [label="gini = 0.0000\nsamples = 1\nvalue = [ 1.  0.]", shape="box"] ;
65 -> 66 ;
67 [label="X[0] <= 9.8700\ngini = 0.32\nsamples = 20", shape="box"] ;
65 -> 67 ;
68 [label="X[0] <= 8.1050\ngini = 0.244897959184\nsamples = 14", shape="box"] ;
67 -> 68 ;
69 [label="X[0] <= 8.0700\ngini = 0.375\nsamples = 8", shape="box"] ;
68 -> 69 ;
70 [label="X[0] <= 7.6250\ngini = 0.244897959184\nsamples = 7", shape="box"] ;
69 -> 70 ;
71 [label="X[0] <= 7.5300\ngini = 0.375\nsamples = 4", shape="box"] ;
70 -> 71 ;
72 [label="gini = 0.0000\nsamples = 3\nvalue = [ 0.  3.]", shape="box"] ;
71 -> 72 ;
73 [label="gini = 0.0000\nsamples = 1\nvalue = [ 1.  0.]", shape="box"] ;
71 -> 73 ;
74 [label="gini = 0.0000\nsamples = 3\nvalue = [ 0.  3.]", shape="box"] ;
70 -> 74 ;
75 [label="gini = 0.0000\nsamples = 1\nvalue = [ 1.  0.]", shape="box"] ;
69 -> 75 ;
76 [label="gini = 0.0000\nsamples = 6\nvalue = [ 0.  6.]", shape="box"] ;
68 -> 76 ;
77 [label="X[0] <= 11.1300\ngini = 0.444444444444\nsamples = 6", shape="box"] ;
67 -> 77 ;
78 [label="X[0] <= 10.8650\ngini = 0.444444444444\nsamples = 3", shape="box"] ;
77 -> 78 ;
79 [label="X[0] <= 10.5050\ngini = 0.5\nsamples = 2", shape="box"] ;
78 -> 79 ;
80 [label="gini = 0.0000\nsamples = 1\nvalue = [ 1.  0.]", shape="box"] ;
79 -> 80 ;
81 [label="gini = 0.0000\nsamples = 1\nvalue = [ 0.  1.]", shape="box"] ;
79 -> 81 ;
82 [label="gini = 0.0000\nsamples = 1\nvalue = [ 1.  0.]", shape="box"] ;
78 -> 82 ;
83 [label="gini = 0.0000\nsamples = 3\nvalue = [ 0.  3.]", shape="box"] ;
77 -> 83 ;
84 [label="gini = 0.0000\nsamples = 3\nvalue = [ 3.  0.]", shape="box"] ;
4 -> 84 ;
85 [label="X[0] <= 22.4200\ngini = 0.248845320011\nsamples = 103", shape="box"] ;
3 -> 85 ;
86 [label="X[0] <= 16.1500\ngini = 0.145429362881\nsamples = 38", shape="box"] ;
85 -> 86 ;
87 [label="X[0] <= 15.8500\ngini = 0.265927977839\nsamples = 19", shape="box"] ;
86 -> 87 ;
88 [label="X[0] <= 14.1600\ngini = 0.197530864198\nsamples = 18", shape="box"] ;
87 -> 88 ;
89 [label="gini = 0.0000\nsamples = 11\nvalue = [  0.  11.]", shape="box"] ;
88 -> 89 ;
90 [label="X[0] <= 14.2200\ngini = 0.408163265306\nsamples = 7", shape="box"] ;
88 -> 90 ;
91 [label="gini = 0.0000\nsamples = 1\nvalue = [ 1.  0.]", shape="box"] ;
90 -> 91 ;
92 [label="X[0] <= 15.1000\ngini = 0.277777777778\nsamples = 6", shape="box"] ;
90 -> 92 ;
93 [label="X[0] <= 14.6000\ngini = 0.444444444444\nsamples = 3", shape="box"] ;
92 -> 93 ;
94 [label="gini = 0.0000\nsamples = 2\nvalue = [ 0.  2.]", shape="box"] ;
93 -> 94 ;
95 [label="gini = 0.0000\nsamples = 1\nvalue = [ 1.  0.]", shape="box"] ;
93 -> 95 ;
96 [label="gini = 0.0000\nsamples = 3\nvalue = [ 0.  3.]", shape="box"] ;
92 -> 96 ;
97 [label="gini = 0.0000\nsamples = 1\nvalue = [ 1.  0.]", shape="box"] ;
87 -> 97 ;
98 [label="gini = 0.0000\nsamples = 19\nvalue = [  0.  19.]", shape="box"] ;
86 -> 98 ;
99 [label="X[0] <= 22.7450\ngini = 0.301065088757\nsamples = 65", shape="box"] ;
85 -> 99 ;
100 [label="gini = 0.0000\nsamples = 1\nvalue = [ 1.  0.]", shape="box"] ;
99 -> 100 ;
101 [label="X[0] <= 43.7550\ngini = 0.28466796875\nsamples = 64", shape="box"] ;
99 -> 101 ;
102 [label="X[0] <= 40.5350\ngini = 0.336734693878\nsamples = 42", shape="box"] ;
101 -> 102 ;
103 [label="X[0] <= 38.4350\ngini = 0.27173119065\nsamples = 37", shape="box"] ;
102 -> 103 ;
104 [label="X[0] <= 32.8900\ngini = 0.3046875\nsamples = 32", shape="box"] ;
103 -> 104 ;
105 [label="X[0] <= 28.2700\ngini = 0.226843100189\nsamples = 23", shape="box"] ;
104 -> 105 ;
106 [label="X[0] <= 27.5450\ngini = 0.32\nsamples = 15", shape="box"] ;
105 -> 106 ;
107 [label="X[0] <= 25.3650\ngini = 0.244897959184\nsamples = 14", shape="box"] ;
106 -> 107 ;
108 [label="X[0] <= 25.1250\ngini = 0.345679012346\nsamples = 9", shape="box"] ;
107 -> 108 ;
109 [label="X[0] <= 23.3750\ngini = 0.21875\nsamples = 8", shape="box"] ;
108 -> 109 ;
110 [label="X[0] <= 23.2550\ngini = 0.444444444444\nsamples = 3", shape="box"] ;
109 -> 110 ;
111 [label="gini = 0.0000\nsamples = 2\nvalue = [ 0.  2.]", shape="box"] ;
110 -> 111 ;
112 [label="gini = 0.0000\nsamples = 1\nvalue = [ 1.  0.]", shape="box"] ;
110 -> 112 ;
113 [label="gini = 0.0000\nsamples = 5\nvalue = [ 0.  5.]", shape="box"] ;
109 -> 113 ;
114 [label="gini = 0.0000\nsamples = 1\nvalue = [ 1.  0.]", shape="box"] ;
108 -> 114 ;
115 [label="gini = 0.0000\nsamples = 5\nvalue = [ 0.  5.]", shape="box"] ;
107 -> 115 ;
116 [label="gini = 0.0000\nsamples = 1\nvalue = [ 1.  0.]", shape="box"] ;
106 -> 116 ;
117 [label="gini = 0.0000\nsamples = 8\nvalue = [ 0.  8.]", shape="box"] ;
105 -> 117 ;
118 [label="X[0] <= 35.9250\ngini = 0.444444444444\nsamples = 9", shape="box"] ;
104 -> 118 ;
119 [label="X[0] <= 34.8800\ngini = 0.5\nsamples = 4", shape="box"] ;
118 -> 119 ;
120 [label="X[0] <= 33.7000\ngini = 0.444444444444\nsamples = 3", shape="box"] ;
119 -> 120 ;
121 [label="gini = 0.5000\nsamples = 2\nvalue = [ 1.  1.]", shape="box"] ;
120 -> 121 ;
122 [label="gini = 0.0000\nsamples = 1\nvalue = [ 0.  1.]", shape="box"] ;
120 -> 122 ;
123 [label="gini = 0.0000\nsamples = 1\nvalue = [ 1.  0.]", shape="box"] ;
119 -> 123 ;
124 [label="X[0] <= 37.9250\ngini = 0.32\nsamples = 5", shape="box"] ;
118 -> 124 ;
125 [label="gini = 0.0000\nsamples = 3\nvalue = [ 0.  3.]", shape="box"] ;
124 -> 125 ;
126 [label="gini = 0.5000\nsamples = 2\nvalue = [ 1.  1.]", shape="box"] ;
124 -> 126 ;
127 [label="gini = 0.0000\nsamples = 5\nvalue = [ 0.  5.]", shape="box"] ;
103 -> 127 ;
128 [label="X[0] <= 41.8700\ngini = 0.48\nsamples = 5", shape="box"] ;
102 -> 128 ;
129 [label="gini = 0.0000\nsamples = 2\nvalue = [ 2.  0.]", shape="box"] ;
128 -> 129 ;
130 [label="X[0] <= 43.3100\ngini = 0.444444444444\nsamples = 3", shape="box"] ;
128 -> 130 ;
131 [label="gini = 0.0000\nsamples = 2\nvalue = [ 0.  2.]", shape="box"] ;
130 -> 131 ;
132 [label="gini = 0.0000\nsamples = 1\nvalue = [ 1.  0.]", shape="box"] ;
130 -> 132 ;
133 [label="X[0] <= 47.5850\ngini = 0.165289256198\nsamples = 22", shape="box"] ;
101 -> 133 ;
134 [label="gini = 0.0000\nsamples = 7\nvalue = [ 0.  7.]", shape="box"] ;
133 -> 134 ;
135 [label="X[0] <= 47.8900\ngini = 0.231111111111\nsamples = 15", shape="box"] ;
133 -> 135 ;
136 [label="gini = 0.0000\nsamples = 1\nvalue = [ 1.  0.]", shape="box"] ;
135 -> 136 ;
137 [label="X[0] <= 62.2250\ngini = 0.132653061224\nsamples = 14", shape="box"] ;
135 -> 137 ;
138 [label="gini = 0.0000\nsamples = 9\nvalue = [ 0.  9.]", shape="box"] ;
137 -> 138 ;
139 [label="X[0] <= 63.3700\ngini = 0.32\nsamples = 5", shape="box"] ;
137 -> 139 ;
140 [label="gini = 0.0000\nsamples = 1\nvalue = [ 1.  0.]", shape="box"] ;
139 -> 140 ;
141 [label="gini = 0.0000\nsamples = 4\nvalue = [ 0.  4.]", shape="box"] ;
139 -> 141 ;
142 [label="X[0] <= 94.4850\ngini = 0.4352\nsamples = 25", shape="box"] ;
0 -> 142 ;
143 [label="X[0] <= 75.1750\ngini = 0.32\nsamples = 15", shape="box"] ;
142 -> 143 ;
144 [label="X[0] <= 72.7100\ngini = 0.42\nsamples = 10", shape="box"] ;
143 -> 144 ;
145 [label="X[0] <= 71.4250\ngini = 0.244897959184\nsamples = 7", shape="box"] ;
144 -> 145 ;
146 [label="X[0] <= 71.1200\ngini = 0.375\nsamples = 4", shape="box"] ;
145 -> 146 ;
147 [label="gini = 0.0000\nsamples = 3\nvalue = [ 3.  0.]", shape="box"] ;
146 -> 147 ;
148 [label="gini = 0.0000\nsamples = 1\nvalue = [ 0.  1.]", shape="box"] ;
146 -> 148 ;
149 [label="gini = 0.0000\nsamples = 3\nvalue = [ 3.  0.]", shape="box"] ;
145 -> 149 ;
150 [label="X[0] <= 73.5150\ngini = 0.444444444444\nsamples = 3", shape="box"] ;
144 -> 150 ;
151 [label="gini = 0.0000\nsamples = 1\nvalue = [ 0.  1.]", shape="box"] ;
150 -> 151 ;
152 [label="gini = 0.5000\nsamples = 2\nvalue = [ 1.  1.]", shape="box"] ;
150 -> 152 ;
153 [label="gini = 0.0000\nsamples = 5\nvalue = [ 5.  0.]", shape="box"] ;
143 -> 153 ;
154 [label="X[0] <= 141.9800\ngini = 0.5\nsamples = 10", shape="box"] ;
142 -> 154 ;
155 [label="X[0] <= 105.6700\ngini = 0.32\nsamples = 5", shape="box"] ;
154 -> 155 ;
156 [label="gini = 0.0000\nsamples = 2\nvalue = [ 0.  2.]", shape="box"] ;
155 -> 156 ;
157 [label="X[0] <= 118.3600\ngini = 0.444444444444\nsamples = 3", shape="box"] ;
155 -> 157 ;
158 [label="gini = 0.0000\nsamples = 1\nvalue = [ 1.  0.]", shape="box"] ;
157 -> 158 ;
159 [label="gini = 0.0000\nsamples = 2\nvalue = [ 0.  2.]", shape="box"] ;
157 -> 159 ;
160 [label="X[0] <= 214.7250\ngini = 0.32\nsamples = 5", shape="box"] ;
154 -> 160 ;
161 [label="gini = 0.0000\nsamples = 3\nvalue = [ 3.  0.]", shape="box"] ;
160 -> 161 ;
162 [label="X[0] <= 239.5300\ngini = 0.5\nsamples = 2", shape="box"] ;
160 -> 162 ;
163 [label="gini = 0.0000\nsamples = 1\nvalue = [ 0.  1.]", shape="box"] ;
162 -> 163 ;
164 [label="gini = 0.0000\nsamples = 1\nvalue = [ 1.  0.]", shape="box"] ;
162 -> 164 ;
}